digraph Tree {
node [shape=box] ;
0 [label="X[11] <= 0.5\ngini = 0.41\nsamples = 690\nvalue = [199, 491]"] ;
1 [label="gini = 0.0\nsamples = 28\nvalue = [28, 0]"] ;
0 -> 1 [labeldistance=2.5, labelangle=45, headlabel="True"] ;
2 [label="X[13] <= 0.5\ngini = 0.383\nsamples = 662\nvalue = [171, 491]"] ;
0 -> 2 [labeldistance=2.5, labelangle=-45, headlabel="False"] ;
3 [label="X[8] <= 0.5\ngini = 0.116\nsamples = 81\nvalue = [5, 76]"] ;
2 -> 3 ;
4 [label="gini = 0.0\nsamples = 33\nvalue = [0, 33]"] ;
3 -> 4 ;
5 [label="X[19] <= 0.5\ngini = 0.187\nsamples = 48\nvalue = [5, 43]"] ;
3 -> 5 ;
6 [label="gini = 0.0\nsamples = 9\nvalue = [0, 9]"] ;
5 -> 6 ;
7 [label="X[3] <= 0.5\ngini = 0.224\nsamples = 39\nvalue = [5, 34]"] ;
5 -> 7 ;
8 [label="X[12] <= 0.5\ngini = 0.245\nsamples = 35\nvalue = [5, 30]"] ;
7 -> 8 ;
9 [label="X[5] <= 0.5\ngini = 0.287\nsamples = 23\nvalue = [4, 19]"] ;
8 -> 9 ;
10 [label="X[1] <= 0.5\ngini = 0.308\nsamples = 21\nvalue = [4, 17]"] ;
9 -> 10 ;
11 [label="gini = 0.245\nsamples = 7\nvalue = [1, 6]"] ;
10 -> 11 ;
12 [label="gini = 0.337\nsamples = 14\nvalue = [3, 11]"] ;
10 -> 12 ;
13 [label="gini = 0.0\nsamples = 2\nvalue = [0, 2]"] ;
9 -> 13 ;
14 [label="gini = 0.153\nsamples = 12\nvalue = [1, 11]"] ;
8 -> 14 ;
15 [label="gini = 0.0\nsamples = 4\nvalue = [0, 4]"] ;
7 -> 15 ;
16 [label="X[8] <= 0.5\ngini = 0.408\nsamples = 581\nvalue = [166, 415]"] ;
2 -> 16 ;
17 [label="X[7] <= 0.5\ngini = 0.352\nsamples = 189\nvalue = [43, 146]"] ;
16 -> 17 ;
18 [label="X[5] <= 0.5\ngini = 0.358\nsamples = 184\nvalue = [43, 141]"] ;
17 -> 18 ;
19 [label="X[12] <= 0.5\ngini = 0.361\nsamples = 182\nvalue = [43, 139]"] ;
18 -> 19 ;
20 [label="X[18] <= 0.5\ngini = 0.382\nsamples = 109\nvalue = [28, 81]"] ;
19 -> 20 ;
21 [label="gini = 0.0\nsamples = 6\nvalue = [0, 6]"] ;
20 -> 21 ;
22 [label="X[2] <= 0.5\ngini = 0.396\nsamples = 103\nvalue = [28, 75]"] ;
20 -> 22 ;
23 [label="X[1] <= 0.5\ngini = 0.398\nsamples = 102\nvalue = [28, 74]"] ;
22 -> 23 ;
24 [label="X[19] <= 0.5\ngini = 0.424\nsamples = 36\nvalue = [11, 25]"] ;
23 -> 24 ;
25 [label="X[3] <= 0.5\ngini = 0.5\nsamples = 10\nvalue = [5, 5]"] ;
24 -> 25 ;
26 [label="gini = 0.5\nsamples = 6\nvalue = [3, 3]"] ;
25 -> 26 ;
27 [label="gini = 0.5\nsamples = 4\nvalue = [2, 2]"] ;
25 -> 27 ;
28 [label="X[0] <= 0.5\ngini = 0.355\nsamples = 26\nvalue = [6, 20]"] ;
24 -> 28 ;
29 [label="gini = 0.0\nsamples = 3\nvalue = [0, 3]"] ;
28 -> 29 ;
30 [label="gini = 0.386\nsamples = 23\nvalue = [6, 17]"] ;
28 -> 30 ;
31 [label="X[19] <= 0.5\ngini = 0.382\nsamples = 66\nvalue = [17, 49]"] ;
23 -> 31 ;
32 [label="gini = 0.153\nsamples = 12\nvalue = [1, 11]"] ;
31 -> 32 ;
33 [label="gini = 0.417\nsamples = 54\nvalue = [16, 38]"] ;
31 -> 33 ;
34 [label="gini = 0.0\nsamples = 1\nvalue = [0, 1]"] ;
22 -> 34 ;
35 [label="X[18] <= 0.5\ngini = 0.327\nsamples = 73\nvalue = [15, 58]"] ;
19 -> 35 ;
36 [label="X[19] <= 0.5\ngini = 0.48\nsamples = 5\nvalue = [2, 3]"] ;
35 -> 36 ;
37 [label="gini = 0.0\nsamples = 1\nvalue = [1, 0]"] ;
36 -> 37 ;
38 [label="gini = 0.375\nsamples = 4\nvalue = [1, 3]"] ;
36 -> 38 ;
39 [label="X[19] <= 0.5\ngini = 0.309\nsamples = 68\nvalue = [13, 55]"] ;
35 -> 39 ;
40 [label="gini = 0.231\nsamples = 15\nvalue = [2, 13]"] ;
39 -> 40 ;
41 [label="X[1] <= 0.5\ngini = 0.329\nsamples = 53\nvalue = [11, 42]"] ;
39 -> 41 ;
42 [label="X[20] <= 0.5\ngini = 0.219\nsamples = 8\nvalue = [1, 7]"] ;
41 -> 42 ;
43 [label="gini = 0.0\nsamples = 1\nvalue = [0, 1]"] ;
42 -> 43 ;
44 [label="gini = 0.245\nsamples = 7\nvalue = [1, 6]"] ;
42 -> 44 ;
45 [label="gini = 0.346\nsamples = 45\nvalue = [10, 35]"] ;
41 -> 45 ;
46 [label="gini = 0.0\nsamples = 2\nvalue = [0, 2]"] ;
18 -> 46 ;
47 [label="gini = 0.0\nsamples = 5\nvalue = [0, 5]"] ;
17 -> 47 ;
48 [label="X[1] <= 0.5\ngini = 0.431\nsamples = 392\nvalue = [123, 269]"] ;
16 -> 48 ;
49 [label="X[18] <= 0.5\ngini = 0.346\nsamples = 99\nvalue = [22, 77]"] ;
48 -> 49 ;
50 [label="X[19] <= 0.5\ngini = 0.434\nsamples = 66\nvalue = [21, 45]"] ;
49 -> 50 ;
51 [label="X[12] <= 0.5\ngini = 0.49\nsamples = 14\nvalue = [6, 8]"] ;
50 -> 51 ;
52 [label="gini = 0.494\nsamples = 9\nvalue = [4, 5]"] ;
51 -> 52 ;
53 [label="gini = 0.48\nsamples = 5\nvalue = [2, 3]"] ;
51 -> 53 ;
54 [label="X[12] <= 0.5\ngini = 0.411\nsamples = 52\nvalue = [15, 37]"] ;
50 -> 54 ;
55 [label="gini = 0.405\nsamples = 46\nvalue = [13, 33]"] ;
54 -> 55 ;
56 [label="gini = 0.444\nsamples = 6\nvalue = [2, 4]"] ;
54 -> 56 ;
57 [label="X[19] <= 0.5\ngini = 0.059\nsamples = 33\nvalue = [1, 32]"] ;
49 -> 57 ;
58 [label="X[3] <= 0.5\ngini = 0.198\nsamples = 9\nvalue = [1, 8]"] ;
57 -> 58 ;
59 [label="gini = 0.0\nsamples = 7\nvalue = [0, 7]"] ;
58 -> 59 ;
60 [label="gini = 0.5\nsamples = 2\nvalue = [1, 1]"] ;
58 -> 60 ;
61 [label="gini = 0.0\nsamples = 24\nvalue = [0, 24]"] ;
57 -> 61 ;
62 [label="X[18] <= 0.5\ngini = 0.452\nsamples = 293\nvalue = [101, 192]"] ;
48 -> 62 ;
63 [label="X[19] <= 0.5\ngini = 0.499\nsamples = 42\nvalue = [20, 22]"] ;
62 -> 63 ;
64 [label="gini = 0.48\nsamples = 10\nvalue = [4, 6]"] ;
63 -> 64 ;
65 [label="X[12] <= 0.5\ngini = 0.5\nsamples = 32\nvalue = [16, 16]"] ;
63 -> 65 ;
66 [label="gini = 0.499\nsamples = 19\nvalue = [9, 10]"] ;
65 -> 66 ;
67 [label="gini = 0.497\nsamples = 13\nvalue = [7, 6]"] ;
65 -> 67 ;
68 [label="X[20] <= 0.5\ngini = 0.437\nsamples = 251\nvalue = [81, 170]"] ;
62 -> 68 ;
69 [label="gini = 0.0\nsamples = 1\nvalue = [1, 0]"] ;
68 -> 69 ;
70 [label="X[12] <= 0.5\ngini = 0.435\nsamples = 250\nvalue = [80, 170]"] ;
68 -> 70 ;
71 [label="X[19] <= 0.5\ngini = 0.453\nsamples = 156\nvalue = [54, 102]"] ;
70 -> 71 ;
72 [label="gini = 0.469\nsamples = 8\nvalue = [5, 3]"] ;
71 -> 72 ;
73 [label="X[7] <= 0.5\ngini = 0.443\nsamples = 148\nvalue = [49, 99]"] ;
71 -> 73 ;
74 [label="gini = 0.44\nsamples = 147\nvalue = [48, 99]"] ;
73 -> 74 ;
75 [label="gini = 0.0\nsamples = 1\nvalue = [1, 0]"] ;
73 -> 75 ;
76 [label="X[7] <= 0.5\ngini = 0.4\nsamples = 94\nvalue = [26, 68]"] ;
70 -> 76 ;
77 [label="X[19] <= 0.5\ngini = 0.405\nsamples = 92\nvalue = [26, 66]"] ;
76 -> 77 ;
78 [label="gini = 0.413\nsamples = 48\nvalue = [14, 34]"] ;
77 -> 78 ;
79 [label="gini = 0.397\nsamples = 44\nvalue = [12, 32]"] ;
77 -> 79 ;
80 [label="gini = 0.0\nsamples = 2\nvalue = [0, 2]"] ;
76 -> 80 ;
}